-1.52079 , -5.73098 , -0.129374 , -0.42389 , -0.0490109 , 0.33383 , -0.497946 , 0.195989 , -0.317867 , 2.078 , 1.1842 , -4.61192 , -0.0422183 , 0.464532 , -0.131238 , 5.19317 , 0.346363 , 0.482151 , -0.255036 , -4.68561 , -1.10569 , -0.798472 , -1.28628 , -2.37682 , -0.808783 , 4.84174 , -2.47785 , 3.497 , 3.84283 , 3.71136 , -8.40227 , 0.37585 , 4.23406 , 0.818504 , 0.201191 , 2.06277 , 0.571389 , 0.69286 , 3.83184 , 0.880016 , 0.766902 , -4.07567 , -1.47216 , -0.39869 , -3.30484 , -7.84389 , 0.275674 , -2.65149 , -0.205427 , 0.469991 , 2.94666 , 0.15776 , 0.310734 , 0.564261 , -4.50204 , -1.31602 , -4.44375 , 0.105381 , 0.0784236 , 0.0477784 , 0.774112 , 0.222854 , -1.01565 , 0.0799949 , -3.50557 , 4.05918 , -3.51859 , 0.56541 , -0.69031 , 0.587396 , 2.16874 , -1.27059 , -3.75656 , -1.35012 , 0.0486035 , 0.276984 , 0.252601 , 1.57272 , 0.669753 , 0.173471 , -0.380644 , 0.803225 , 0.926564 , 4.26443 , -0.16309 , -3.54902 , -0.107224 , 3.81971 , 0.432227 , 0.0176042 , 0.337831 , 2.55907 , -0.162349 , -1.51484 , 3.3058 , -8.02961 , -1.99213 , 1.49994 , -0.863845 , -1.30814 , -0.142052 , -2.06925 , -1.04957 , -0.757862 , 0.926972 , 0.479487 , -0.0514604 , 0.842145 , -0.460365 , 1.26413 , -0.388896 , -0.75047 , -0.678382 , -1.043 , -0.0915264 , 4.89804 , -0.820664 , 2.15365 , 1.62339 , 1.70735 , 0.603528 , -0.0268895 , 0.839536 , 0.558779 , 0.0294766 , 1.36143 , 0.135091 , -1.96829 , -2.30562 , -1.14083 , -8.4218 , 3.97501 , 3.17609 , 3.48408 , -0.219558 , 1.65325 , 0.0398226 , 0.67857 , -0.0489293 , 0.720071 , -4.14842 , 2.11752 , -0.913591 , -0.267951 , 1.33256 , 0.165446 , 1.39023 , 1.39124 , 0.104371 , -0.0230319 , -10.0165 , -0.302259 , -5.9339 , 1.19422 , -0.896799 , -4.66152 , 1.35082 , -0.576474 , -5.82277 , 0.92171 , -2.38847 , 2.18282 , -1.23935 , -0.586591 , 1.32556 , 0.556846 , 0.00493893 , 2.84009 , -0.741364 , -1.33628 , -8.24846 , 0.302334 , -0.963393 , 3.02439 , 0.325054 , 0.592351 , 2.87596 , 0.236772 , -0.968824 , 2.95442 , -0.355717 , -1.10422 , -1.76504 , -0.732699 , 4.23106 , -2.02192 , 1.14526 , -2.40977 , 0.926184 , 1.94486 , -1.84381 , 1.4554 , 2.14088 , 1.07486 , 4.08597 , 1.96307 , -3.29548 , -0.926832 , 